#ifndef MODEL_DATA_H
#define MODEL_DATA_H

// MODEL CONFIGURATION
// Replace these with your actual model parameters exported from the Web App
// ------------------------------------------------------------------------

const int INPUT_NODES = 12;
const int HIDDEN_NODES = 16;
const int OUTPUT_NODES = 5;

const float WEIGHTS_HIDDEN[192] = {
    -0.18818444, -0.50012839, -0.32299572, -0.41420925, -0.31559324, 0.03213099, -0.59284610, -0.90903133, 
    -0.25566766, 0.06343905, 0.61619389, 0.69292736, -0.27201134, 0.35769910, 0.32747951, -0.09408969, 
    0.43317851, 0.09150130, -0.53079867, -0.99271387, -0.07618444, -0.12238802, -1.37173378, -1.40408707, 
    -1.07705069, -0.10736425, 1.31849253, 0.76741755, -0.75927269, 1.00428283, -0.05059297, 1.36780322, 
    -0.31971827, -0.43748352, -0.05069673, -1.12393832, -0.12782837, -0.16627064, -0.59006584, -1.21225560, 
    -1.21022570, -0.50625062, 1.22220218, 1.26338875, -1.14049029, -0.28835407, -0.43205589, 1.07701123, 
    -0.33965740, 0.11736654, -0.12228696, -1.21684337, -0.27307516, -0.23967631, -0.25407144, 0.91335046, 
    -1.23635471, -0.95339519, 0.36619040, 1.20716095, -0.74548280, -1.19795835, -0.16828264, 0.78267068, 
    -0.02256192, 0.25337693, -0.30528352, 0.10267699, 0.42073748, 0.26422602, 0.07051966, 0.48680392, 
    0.13992350, 0.41649947, 0.52653259, 0.81250083, 0.20872113, -0.17274477, 0.31275800, -0.23959373, 
    -0.13152753, -0.09583448, -0.08644539, 0.51414084, 0.40873784, -0.12584998, 0.29871199, -0.02028196, 
    0.18653943, 0.49928984, -0.12858932, -0.43810841, 0.23196729, 0.11646671, 0.01711992, -0.81915468, 
    -0.09223811, -0.32688618, 0.00485670, -0.72810155, -0.35631320, -0.37116599, 0.37894070, 0.75031435, 
    -0.71295261, -0.49646837, 0.35284689, 1.20027924, -0.22400525, -0.56958407, -0.09011782, 0.63760662, 
    -0.55830526, 0.27449590, 0.21409084, -0.12764819, -0.12579925, -0.29233697, 0.95279074, 0.48888373, 
    -0.15712008, 0.18995592, -0.22053169, 0.37508115, 1.00632858, 0.32059729, -0.40056831, -0.08603624, 
    0.06075867, -0.11634172, -0.17581183, 1.20006216, 0.04567241, -0.04240298, 0.90583694, 0.20313410, 
    1.51101732, 1.25807559, -0.69910401, -0.18444386, 1.02792370, 1.31911612, 0.06764579, -0.76655203, 
    0.18670683, 0.04715585, -0.09991106, 1.08765757, -0.20310940, 0.19033490, -0.06743261, -0.26835248, 
    1.43964422, 1.55092251, -0.21944819, -0.47912258, 1.23259068, 1.27889252, -0.14560258, -0.80407947, 
    0.08930234, -0.23117234, 0.25417745, 0.68580908, -0.22113268, -0.05259312, -0.39603576, 0.27275458, 
    -0.00844766, 0.41270959, 0.77836043, 0.51070964, 0.46875462, 0.02178827, 0.08760437, 0.39104989, 
    -0.54652733, -0.33387697, 0.10176268, 0.49147016, -0.44771060, -0.07174163, 0.18304594, 0.14838648, 
    0.60529798, 0.19556721, 0.26919621, -0.12938133, 0.35267586, 0.95069242, 0.04411722, -0.64696771
    };

const float BIASES_HIDDEN[16] = {
    -0.10261206, 0.00000000, -0.04089586, 0.16655964, 0.00000000, -0.10918108, 0.10622776, 0.17750373, 
    0.24136740, 0.07031214, 0.28811756, 0.46779010, 0.31424001, -0.03389864, 0.00000000, 0.09776635
    };

const float WEIGHTS_OUTPUT[80] = {
    -0.01253561, -0.07457489, -0.04112183, 0.11625606, 0.16478117, 0.17444199, -0.23880950, -0.18879540, 
    0.18901676, -0.30396524, 0.26645294, 0.36313567, 0.05951962, 0.21578418, 0.09500162, 1.42835021, 
    0.65767503, -1.65999472, -0.58659410, -1.00344694, -0.26097277, 0.03321739, -0.39090979, 0.28986776, 
    0.11898120, 0.01389409, -0.08217320, 0.31676674, 0.30467346, -0.45431551, 1.08121467, 0.64961398, 
    1.30232704, -0.46568489, -1.32259452, -0.57992166, 0.89752591, 1.25539196, -1.13109374, -1.73766255, 
    1.08623850, 0.21006644, -1.58391571, -0.67287910, -1.02105141, 1.00842643, 0.61676621, -0.52377903, 
    -1.71076846, 0.98625177, -1.64745581, -0.68799311, -0.52763784, 1.07397461, 0.93429947, -0.97089738, 
    0.20897047, 0.70317382, 0.76588082, 0.36000147, 0.69257057, 0.13385640, 0.18947570, -1.71481574, 
    -0.08646739, 0.99746329, -0.41777250, -0.80734712, -1.11501658, 0.91701484, -0.14179367, -0.16481312, 
    -0.03048253, 0.05793988, -0.44378310, -0.25931257, -1.00829101, 0.23220824, 1.37396705, 0.31980813
    };

const float BIASES_OUTPUT[5] = {
    -0.59186691, -0.13209179, 0.46647134, 0.02780619, 0.08311351
    };

const char* CLASS_NAMES[5] = {
    "Red",
    "Yellow",
    "Green",
    "Blue",
    "Purple"
};

#endif
